{"network_structure": {"first_layer_size": 16, "middle_layer_size": 10, "last_layer_size": 1}, "weights": {"weights1": [[0.36586317136660146, 0.37870321889753417, -0.27316994586416177, -1.1101829920732154, 0.755362461635398, 0.942436751324282, -0.4698329346482509, 0.5598924929316048, -0.6014082585631818, -0.6532899467189492, 0.2208389500204608], [-0.04291107807246648, 0.8705457615716843, -0.4641227131557617, 0.3118325844259413, 0.9994630553760013, -0.5017953639656687, -0.34117439029994545, -0.6889572538339963, -1.0741182854642162, -0.1193603193274092, 0.9108542155609929], [0.081664981458404, 0.06065660511708448, 0.7237630388723144, -0.16259896026743473, 0.9026469272698002, 0.5178757375115894, -0.3634247476690954, 0.8461276247263227, -0.467988468079967, 0.6248875446215387, 0.08770964901734588], [-0.07351583348675579, 0.08362861129696106, -0.7026461687477542, 1.711244741288827, 0.9087486393121841, -0.11884438926672411, -1.2770472832232356, -1.7440061697917866, -0.5327134496151347, 0.6624068712537954, 0.08710387790675458], [-0.2881302371783893, 0.3783060506692384, -0.5432870730304232, 0.18665417520820018, 0.6071536619732791, -0.0721401483600486, 1.1783291652424248, 0.17017350844810947, -0.09888752159065319, -0.11726170135984569, 0.587230297669538], [-0.10800708598166114, -0.6606254172062872, -0.7327517022755224, -1.4812929879597192, 0.4716796848711612, 1.0687310527993208, 0.7031381619402406, -0.5367731290601806, 0.9130408112275211, 0.6463931837160385, -0.718760346749237], [-0.6405600147435018, -0.0037859970937794, -0.18790868711257272, 0.9658189600537316, 0.09288822205615624, -0.7654165528544786, -0.02379572718490655, 0.7102533632177571, -0.4744455687870801, -0.255143440326185, 0.11592707806116737], [0.05992745215963245, 1.1491831184697072, 0.10741134315999248, 0.20896878807528818, 0.692301895302732, -0.5885229339208325, -0.5415901948556154, -1.0328578766953376, -0.2858800214397723, -0.28753596746167553, -0.022590121969345706], [0.0007200575214010158, -0.8992997231691258, 0.40301678078671843, 0.29412924649793737, 0.430592613289906, 1.2071934502116162, -0.014402410031756366, 0.06105867747550579, -0.33170818993054396, -0.11705049710838704, -0.1435092052570141], [-0.18653897620157145, -0.012423216709620433, 0.18987294608815755, -0.7502192914111637, 0.21327952308472042, 0.6254750204754875, -0.24275508961858705, -0.47496106724835274, 0.8492831915471017, -0.6158707139624519, -0.012500215191854458], [-0.9649574640286455, -0.6086290537818778, -0.20771854650337057, -0.9781032376718573, -0.14423247611877085, 1.352963948069753, -1.0085087315800398, -0.3041025612150186, -0.11965548398163611, -0.27443436692801465, 0.7636660535770966], [0.16879749702617933, -0.29810080752382195, -0.9363511216968502, 0.4895496057159979, 0.44367340494836016, -0.5243498619638827, -0.22683356809141422, -0.29299224845044625, 0.5624997958763155, -0.8268639836718821, 0.015013542752256914], [-0.3697940721144431, -0.44583763956851263, 0.0755385636355399, -0.43616330031997214, 0.44269319946711716, -0.08883767848336004, 0.1820719386574267, -1.1869878853524278, 0.5034219115927816, 0.35974147038213794, 0.1440290244238231], [1.1958988976866207, -1.554777352306946, -1.2872921763576466, -0.03169465552692584, 1.6337442615093312, -0.343942152223046, -0.4549168531973289, -0.7215815425968796, -1.374723180407343, 0.7215367132955984, -0.6959844121611141], [0.07391595908616895, -0.09025487591989509, 0.04816283282570563, -0.060261933755579415, 1.1688717257770274, -0.6778060172812415, -0.1284788998232369, -0.7134658144600784, -0.6664269940595053, 0.3669910728048818, 1.1589547717563258], [0.45197456699403116, -0.86064872837765, 0.769707706670702, 0.20105591919264315, 0.6407855979946877, -0.14142291523122758, -0.42704665341376535, -0.9963733362379963, -1.0052265810881467, -0.9092573232182277, -0.5284848372250887], [2.2017053160193525, -0.19019302326070908, -1.160215263681216, 0.48147011892870417, -1.376139002384068, -0.2261437784306663, 0.0017315886553447846, -0.7407950605815572, 0.8685762501426411, 2.1878963711405763, 1.2940051389813376]], "weights2": [[1.52130102301253], [0.28432021081606323], [0.44429258497178303], [0.179191029516401], [-1.6290624623002847], [0.05088055555095415], [-0.14639212444257285], [0.5933283851158175], [0.63778813076308], [0.5077838800270184], [0.5262793624797101]]}}