{"network_structure": {"first_layer_size": 16, "middle_layer_size": 10, "last_layer_size": 1}, "weights": {"weights1": [[0.3495443746184559, -0.04996256232170987, -0.1282955209012802, 1.075670329236057, 1.0673955222340359, -0.5344373026813927, 0.3141750788195439, 0.2092905328920228, 0.32250005957805183, -1.292223882918329, -1.2316817469069012], [0.14107971840825934, 0.5925839571522471, 0.6284475130742875, 0.6833974853881094, -0.19459464475322452, -0.7213050580067488, 0.15727468804162298, -0.2948497570297929, 0.9503441775510462, -0.8612446946574, -0.32940701645833814], [0.7606683234488631, -0.027170351175334208, -0.12764557123106945, 0.3847389601303606, -0.2225204156037479, -0.7389444731760937, -0.9216347770176062, -0.42887568851983804, 0.4168721969052042, -0.7095026372996851, -1.4063947335981593], [-1.1435546620883508, 0.21194686086277695, 0.47977931647977134, 1.1720668449193676, -0.42540250171074107, -0.47522915276776145, -0.562384438198728, 0.37562221647934263, 1.2469879682546696, -0.5448765630596385, -1.1339025535231888], [-0.2302359660925375, -0.25762810157484084, -1.4253369077059008, 0.907439635188341, -0.47309928286091407, -1.1966393117627088, 0.7171104523377141, 0.39135384648489435, 0.15756334939533626, 0.9093712000468533, 0.7294881747139681], [-1.5223948245260235, 0.4768647971202412, 0.736124787446274, 0.9188698078162707, 0.14529110818541496, 0.5410861186528815, -1.7701485010764852, -0.18921878758312533, 0.29079327706498637, 0.10708038727153213, 1.0747377726405756], [0.8340853534431327, -1.5049899743240505, 0.3303865157502509, 0.2851920305826737, 0.24532074298472129, -0.27920962930087634, 0.5159169804852852, -0.6923056446240404, 1.1385579570474285, -0.15859470280390958, 1.2311199092289669], [0.6734071829166245, -0.9345831128002552, -1.1445880936987145, 0.41343224635805154, -0.19710922134765657, 0.9272999256151938, -0.08223128518889619, -0.3244505460477716, -0.3594789637361271, -0.14036950930701214, -1.0259647668438587], [1.1364450686281538, 0.02702407080637556, 0.09414768727904699, 0.03909822594377342, -0.7655454849480654, -0.8034471731216111, -0.8891685791085847, -0.5574030918878206, -1.0169537362217962, 1.6840273237218917, -0.8483655906874736], [-1.5901332051241839, -1.0873811883843898, -1.413493559174698, 0.44950276926013455, -0.19607058403618646, 0.7904065665596434, -0.6298509454808402, -0.8398461816800077, 2.051712840342637, 1.0672418547385862, -0.5877567783109534], [0.6630996684375772, -0.014455844748722857, -0.5931586266688396, 1.9910995309814539, -0.13428758965216497, 0.33265200252503774, 0.07293746517825257, 1.0140099462794099, 2.2281484866154075, 0.16580606163592781, 0.7078115040247869], [-0.2277190043051135, 0.7679811540425976, 0.542986065779897, 1.1433375587420356, 0.3657920241844621, -0.18949476912884244, -1.9396941414303148, 0.3994289189281088, -0.27470778918880046, 0.14066573900410403, -0.9714182687452957], [-0.5046945744378208, -0.3414158914675079, 0.34653274486629304, 0.834315420639645, -0.6310241650449306, -0.42659910390515554, -1.1255197204105505, 0.34164994164471885, -0.28205899938483503, -1.0077566960771533, -0.617055275418789], [-0.45798409220947534, -0.9389932139146996, 0.49769166152800504, 1.6251940311962498, 0.662177512242089, 1.0417209323235332, -1.5176497782316545, 0.6563099497218325, 0.31321188389116184, -1.3596581778265393, -1.4535068559246855], [-0.8909777408139179, 0.24276319206860342, 0.3998789015109654, 0.4631366713945841, 1.412189383470814, -0.16190215521091308, -0.42918534814731635, -0.4753422588490944, -0.332658582144164, 0.44445920092489544, -0.6094243600792808], [-0.44986180720606217, -0.19905441961198372, 1.290523239424656, 0.21529563135685262, -1.2583870884788373, 1.3336024965435451, -0.9191267409516222, -0.6134950525526889, -1.7007370531801387, 0.26260051389528816, 0.4690171317019606], [0.24501117261870517, 0.5784864778035025, -0.9545387010580086, -3.4501308444654453, 0.5798730942377737, 1.008687864964004, -0.5664157898893549, 2.3703836780476455, 1.3059457367772154, -1.6686240338219143, -0.03637932596204969]], "weights2": [[0.21233407417629524], [-0.5049967119824916], [-0.21071693679249942], [1.9967552705525244], [-0.45497955651865063], [-0.38238395355439814], [-0.9914597536997558], [-1.556561393610685], [-0.2955500171427131], [-0.036439216323742196], [-0.14327339057620786]]}}